{
  "Config": {
    "VocabSize": 4,
    "EmbeddingSize": 32,
    "ContextSize": 8192
  },
  "Weights": {
    "Embeddings": [
      [
        0.059116036,
        -0.08426876,
        -0.045059975,
        -0.0887625,
        -0.041700877,
        -0.01092936,
        -0.0061378856,
        0.060385533,
        0.0067956005,
        0.06780053,
        0.002518369,
        -0.019518215,
        0.081328906,
        -0.046909552,
        0.049891587,
        0.017453589,
        0.064339675,
        -0.0042050914,
        0.008429734,
        -0.044030014,
        0.046130467,
        -0.04190236,
        -0.08244966,
        -0.037432406,
        -0.018502688,
        0.074453734,
        -0.09494501,
        0.054905917,
        0.07369169,
        -0.046930987,
        -0.09402761,
        0.034244224
      ],
      [
        -0.040463664,
        -0.0663232,
        0.006385276,
        -0.04848749,
        -0.061674643,
        0.03209086,
        0.03153236,
        0.078338996,
        0.03831766,
        0.019077811,
        -0.06446263,
        -0.0116411,
        -0.035904117,
        -0.0015147097,
        -0.07244169,
        -0.09379082,
        0.0013433949,
        -0.016157791,
        -0.07179519,
        -0.031504195,
        -0.07127592,
        0.04017656,
        -0.07698136,
        -0.09823676,
        -0.08248847,
        0.07636614,
        -0.09435219,
        -0.059977964,
        0.0061508026,
        0.024437964,
        0.091734044,
        0.06491357
      ],
      [
        0.040096898,
        -0.03669379,
        -0.007013651,
        -0.018117558,
        -0.0010820212,
        0.0759014,
        0.07493143,
        0.03366449,
        -0.055514015,
        0.0541583,
        -0.08246541,
        0.003286423,
        -0.040738784,
        0.011098618,
        -0.064905465,
        -0.014206651,
        -0.09957549,
        0.050532497,
        -0.07517321,
        0.024292696,
        0.032832805,
        -0.045459054,
        0.07254674,
        -0.097418495,
        0.0068133506,
        -0.07019086,
        -0.04741263,
        0.029959055,
        0.07925311,
        0.055147614,
        -0.08012859,
        -0.03327688
      ],
      [
        0.08928063,
        -0.07445191,
        -0.09215651,
        -0.0410518,
        -0.051962916,
        0.062898725,
        -0.07684939,
        0.09974942,
        0.09209206,
        -0.05871744,
        -0.05611286,
        0.0039125755,
        0.0370067,
        -0.04729532,
        -0.066515915,
        0.008637354,
        -0.040243637,
        0.07017357,
        0.02760843,
        -0.042761113,
        0.050680704,
        -0.06543815,
        0.07795901,
        0.08316975,
        0.06162674,
        0.09877485,
        0.04161286,
        0.043042503,
        -0.005425538,
        -0.04281606,
        -0.048891637,
        -0.053250775
      ]
    ],
    "OutputWeights": [
      [
        -0.016520862,
        -0.040719237,
        0.036881994,
        0.090535186
      ],
      [
        0.0118583925,
        -0.093178816,
        0.014687245,
        0.03766818
      ],
      [
        0.02693125,
        -0.059759337,
        0.06668447,
        -0.02754815
      ],
      [
        0.034238234,
        -0.013670146,
        -0.061363216,
        0.03572187
      ],
      [
        -0.030618321,
        -0.04811226,
        -0.046821095,
        -0.02223592
      ],
      [
        0.04949805,
        0.028371742,
        0.012463091,
        -0.037533723
      ],
      [
        0.095109224,
        -0.075397685,
        0.06975023,
        -0.07143207
      ],
      [
        0.038187765,
        -0.02707731,
        0.071316324,
        0.042723984
      ],
      [
        0.08799067,
        -0.09711114,
        0.03974464,
        -0.059972137
      ],
      [
        -0.0015389087,
        -0.037208106,
        -0.04826503,
        -0.04642335
      ],
      [
        0.07238851,
        -0.041640975,
        0.037120286,
        -0.076810986
      ],
      [
        0.008149047,
        0.028573718,
        0.023270357,
        -0.0478727
      ],
      [
        0.09988912,
        -0.018371465,
        0.08094331,
        0.056326788
      ],
      [
        -0.06644887,
        -0.09919897,
        -0.05859183,
        -0.04211547
      ],
      [
        0.06253014,
        -0.071789354,
        -0.0041536246,
        -0.010473558
      ],
      [
        0.10102222,
        0.09055774,
        -0.03809027,
        0.03551799
      ],
      [
        -0.07163303,
        -0.049135037,
        0.06543966,
        -0.0726519
      ],
      [
        -0.052978452,
        -0.01629586,
        -0.026641123,
        0.018261604
      ],
      [
        -0.041649558,
        -0.037444465,
        -0.04703672,
        -0.047918573
      ],
      [
        0.068154804,
        0.03971036,
        0.050834294,
        0.0068762046
      ],
      [
        0.07314756,
        0.05331091,
        -0.060935266,
        0.03640856
      ],
      [
        0.0063769547,
        0.08979593,
        -0.063932486,
        0.033258118
      ],
      [
        0.06414834,
        0.08696667,
        -0.062907904,
        -0.05249608
      ],
      [
        0.0080734175,
        -0.054861095,
        -0.006048534,
        -0.0063591246
      ],
      [
        -0.0039653215,
        0.0551114,
        0.05347889,
        -0.07232667
      ],
      [
        -0.033732943,
        -0.06591725,
        0.07866078,
        -0.09681784
      ],
      [
        -0.05961706,
        0.08566005,
        -0.044623308,
        0.011305166
      ],
      [
        -0.07116007,
        0.071245335,
        0.09530718,
        -0.09281504
      ],
      [
        -0.025475077,
        -0.06722623,
        0.0315797,
        -0.077488594
      ],
      [
        -0.09000486,
        -0.083143406,
        0.056187548,
        0.0069282395
      ],
      [
        0.026165685,
        -0.0015766473,
        0.044764765,
        0.04379132
      ],
      [
        0.012997083,
        0.09760148,
        -0.010141169,
        -0.05243697
      ]
    ],
    "OutputBias": [
      -0.048588566,
      -0.048573516,
      0.048490368,
      0.048671722
    ]
  }
}