{
  "Config": {
    "VocabSize": 4,
    "EmbeddingSize": 32,
    "ContextSize": 8192
  },
  "Weights": {
    "Embeddings": [
      [
        0.08192658,
        -0.007083214,
        0.0810909,
        0.096596345,
        -0.019061986,
        -0.0333281,
        -0.056739826,
        0.08029227,
        0.0767752,
        -0.056524683,
        0.08573098,
        -0.02445872,
        0.0438213,
        -0.089352205,
        -0.088629276,
        -0.022241203,
        -0.09462219,
        -0.099483244,
        0.08316202,
        -0.0021818946,
        -0.048791863,
        0.06520258,
        0.0015427358,
        0.0999816,
        0.025898026,
        0.079933025,
        0.06621614,
        -0.053046092,
        0.0502862,
        0.054663133,
        -0.014738762,
        0.08375567
      ],
      [
        -0.044255123,
        -0.014728475,
        0.03579093,
        0.049354672,
        -0.049817882,
        -0.07273392,
        0.06275268,
        -0.061506826,
        0.021624476,
        -0.097471364,
        -0.06621943,
        0.046168514,
        -0.06478319,
        -0.02730822,
        0.0068673836,
        0.021421611,
        0.041223995,
        -0.09042409,
        -0.07353667,
        -0.01670941,
        0.017353714,
        0.06202603,
        -0.077085495,
        0.08771269,
        -0.023924416,
        -0.036526237,
        -0.042493235,
        -0.0029541042,
        -0.08634281,
        -0.044674803,
        -0.04621829,
        0.086514175
      ],
      [
        -0.043359395,
        -0.06982193,
        0.04312583,
        0.043731377,
        -0.007430838,
        -0.037729222,
        -0.08844426,
        0.08705176,
        0.07021831,
        0.064342976,
        0.008862493,
        -0.05270554,
        -0.08817399,
        0.0879026,
        -0.054481152,
        -0.048074573,
        -0.053786736,
        -0.07750868,
        0.032308083,
        0.029885741,
        -0.085355684,
        0.0029924798,
        0.09838025,
        -0.0030814512,
        0.02104098,
        -0.047314856,
        -0.06738942,
        -0.07383655,
        -0.09158923,
        0.048586816,
        -0.094473474,
        0.014495908
      ],
      [
        -0.045210943,
        0.09751537,
        -0.012041721,
        0.0961804,
        0.025884507,
        -0.032386456,
        0.029338665,
        0.0068697333,
        0.01856796,
        -0.09205265,
        -0.019029168,
        -0.04167603,
        -0.08703166,
        0.033700712,
        0.06424713,
        0.0976192,
        0.028298654,
        0.05431154,
        -0.015090493,
        -0.056888305,
        -0.05331594,
        0.027440839,
        0.06391639,
        -0.011657145,
        -0.0024945165,
        0.012198454,
        -0.032481924,
        -0.09663988,
        0.06918945,
        -0.0246019,
        -0.0115164425,
        -0.021251194
      ]
    ],
    "OutputWeights": [
      [
        -0.085494295,
        0.08055209,
        -0.0124028325,
        -0.0001850544
      ],
      [
        -0.082443126,
        0.005474208,
        0.07141901,
        0.012327422
      ],
      [
        0.03132225,
        0.080509566,
        -0.0040489966,
        0.05091687
      ],
      [
        0.04848226,
        0.027627233,
        0.07038089,
        -0.090346366
      ],
      [
        -0.088962324,
        -0.070489444,
        0.038691573,
        -0.01580905
      ],
      [
        0.015275329,
        -0.049116373,
        -0.015547442,
        -0.079259686
      ],
      [
        0.0014605711,
        -0.09783321,
        -0.049614355,
        -0.06155953
      ],
      [
        -0.040483356,
        0.025547415,
        -0.0579785,
        -0.005026061
      ],
      [
        -0.011780081,
        0.049374755,
        -0.0808072,
        -0.0661571
      ],
      [
        -0.043787017,
        0.03772627,
        0.06368491,
        -0.08075304
      ],
      [
        0.077411,
        -0.016756577,
        -0.078969546,
        0.081378184
      ],
      [
        -0.011707538,
        -0.064832315,
        -0.014533888,
        0.0034010762
      ],
      [
        0.01901092,
        0.02078274,
        -0.0069932225,
        -0.101805076
      ],
      [
        -0.07473045,
        -0.02493105,
        -0.019427557,
        0.011175884
      ],
      [
        -0.055466782,
        -0.08426035,
        -0.087709785,
        -0.01684064
      ],
      [
        0.032481894,
        0.055780888,
        -0.058769763,
        -0.010547377
      ],
      [
        0.07068394,
        -0.03517771,
        0.08479586,
        -0.056123056
      ],
      [
        0.03331917,
        0.010856875,
        -0.007697577,
        -0.074565165
      ],
      [
        -0.07624256,
        -0.03501411,
        0.0685173,
        0.07091247
      ],
      [
        0.026031438,
        0.09226362,
        -0.046757728,
        0.044754088
      ],
      [
        -0.0098830005,
        0.010965428,
        0.014941507,
        -0.054460634
      ],
      [
        -0.04709439,
        0.014254378,
        -0.09566535,
        -0.037929334
      ],
      [
        -0.096526906,
        -0.033238474,
        0.094550654,
        0.0063617923
      ],
      [
        -0.0126880715,
        0.01633819,
        0.090766504,
        -0.03575609
      ],
      [
        0.06679365,
        0.008553261,
        0.044177193,
        -0.037208345
      ],
      [
        0.097432844,
        0.02216674,
        -0.08478951,
        -0.05651804
      ],
      [
        -0.077608384,
        -0.019884015,
        0.017115593,
        0.09240612
      ],
      [
        -0.034113023,
        -0.09184992,
        -0.03937216,
        0.004538297
      ],
      [
        0.026802676,
        -0.0626141,
        -0.001650086,
        -0.08865351
      ],
      [
        0.0069535975,
        0.099460505,
        -0.08623704,
        -0.07498323
      ],
      [
        0.081930704,
        0.012464407,
        -0.037448876,
        0.07439482
      ],
      [
        0.08112455,
        0.06366102,
        0.015788678,
        0.008991522
      ]
    ],
    "OutputBias": [
      -0.04881686,
      -0.049588736,
      0.049483214,
      0.048922375
    ]
  }
}